%YAML:1.0
---
opencv_ml_svm:
   format: 3
   svmType: C_SVC
   kernel:
      type: RBF
      gamma: 1.
   C: 1.
   term_criteria: { epsilon:1.1920928955078125e-07, iterations:1000 }
   var_count: 7
   class_count: 3
   class_labels: !!opencv-matrix
      rows: 3
      cols: 1
      dt: i
      data: [ 1, 2, 3 ]
   sv_total: 36
   support_vectors:
      - [ 1.77026287e-01, 2.28024693e-03, 2.19176509e-04, 7.76178604e-06,
          2.63406991e-10, 2.95596976e-07, -1.81951038e-10 ]
      - [ 1.99387103e-01, 1.17760366e-02, 6.29546703e-04, 5.59266082e-05,
          2.73034750e-09, 4.42723262e-07, -1.01325988e-08 ]
      - [ 2.92724788e-01, 2.91343015e-02, 8.70850403e-03, 2.85861176e-03,
          1.36569988e-05, 4.59869974e-04, 4.11261635e-06 ]
      - [ 1.94858059e-01, 9.74591542e-03, 5.36114851e-04, 4.69563711e-05,
          1.56123003e-09, -1.09110346e-07, -7.28483007e-09 ]
      - [ 3.29320669e-01, 4.79451083e-02, 1.25493919e-02, 2.83541437e-03,
          1.47705732e-05, 5.01799805e-04, 8.24015569e-06 ]
      - [ 1.75175995e-01, 1.38620776e-03, 4.64479905e-04, 3.35913282e-05,
          3.63227426e-09, 1.22393988e-06, -2.10049644e-09 ]
      - [ 4.30092067e-01, 1.20175794e-01, 2.72991955e-02, 1.13435313e-02,
          1.95606626e-04, 3.73420562e-03, 3.98114971e-05 ]
      - [ 1.93363309e-01, 9.96429194e-03, 2.44474330e-04, 1.61275038e-05,
          3.96903829e-11, 1.75471044e-07, -1.01189046e-09 ]
      - [ 1.91705406e-01, 8.89708381e-03, 3.07930924e-04, 2.44442144e-05,
          4.60997379e-10, 3.59556083e-07, -2.07004569e-09 ]
      - [ 3.36360633e-01, 5.96495792e-02, 7.53223710e-03, 2.63744337e-03,
          1.14816621e-05, 6.26682886e-04, 2.52198834e-06 ]
      - [ 1.95650980e-01, 8.93723406e-03, 1.01363868e-03, 1.36144314e-04,
          4.40238139e-08, 1.05389990e-05, -2.48956393e-08 ]
      - [ 2.13040709e-01, 1.01733431e-02, 4.20384808e-03, 1.56070557e-04,
          -8.05351874e-08, -1.24349544e-05, 9.74438592e-08 ]
      - [ 1.69979751e-01, 4.45595157e-04, 1.37480922e-04, 6.63673632e-07,
          6.33524743e-12, 2.58502553e-09, 2.31392217e-13 ]
      - [ 2.00919718e-01, 6.40547927e-03, 2.45567411e-03, 1.05309497e-04,
          1.49350985e-08, -2.15671730e-06, 5.14286320e-08 ]
      - [ 2.00969294e-01, 1.43529696e-03, 7.34228990e-04, 1.96390334e-04,
          3.47745619e-08, 5.32819172e-07, 6.59714274e-08 ]
      - [ 2.57874757e-01, 1.72287822e-02, 1.59164064e-03, 1.52473440e-04,
          7.48870903e-08, 6.64141226e-06, 5.81835957e-09 ]
      - [ 2.21600205e-01, 1.69942696e-02, 3.31049878e-03, 6.01721928e-04,
          8.49257162e-07, 7.76075831e-05, -2.05919815e-09 ]
      - [ 1.98710054e-01, 3.85252223e-03, 1.76895352e-03, 1.71706677e-04,
          7.46435163e-08, 2.28292447e-06, 5.81687267e-08 ]
      - [ 2.25580335e-01, 6.67952001e-03, 2.10757740e-03, 4.17832809e-04,
          3.85029352e-07, 3.31406445e-05, 7.41208339e-08 ]
      - [ 1.97009504e-01, 1.08218957e-02, 6.43193256e-04, 6.57041819e-05,
          9.87947413e-09, 5.12624729e-06, -9.21065624e-09 ]
      - [ 1.68573141e-01, 9.00476007e-04, 3.95711686e-05, 1.26687530e-06,
          -7.80368825e-12, -3.51450993e-08, 4.42295636e-12 ]
      - [ 1.94288746e-01, 1.10102240e-02, 2.00722570e-06, 1.18777216e-07,
          -4.81827374e-14, -1.00002930e-08, 3.22793448e-14 ]
      - [ 1.80380404e-01, 5.06088557e-03, 9.32431158e-06, 9.26926930e-07,
          -2.31995955e-12, -5.96432699e-08, -1.42960123e-12 ]
      - [ 1.93501502e-01, 1.86491874e-03, 1.01005740e-03, 2.09259262e-04,
          9.47947285e-08, 8.99007682e-06, 1.64153580e-08 ]
      - [ 3.16627353e-01, 6.17379881e-02, 8.19301233e-03, 3.30089126e-03,
          1.70839940e-05, 8.13904742e-04, 1.67573285e-06 ]
      - [ 1.88488409e-01, 3.95886041e-03, 1.38435024e-03, 4.41092088e-05,
          5.94954574e-09, -2.34950601e-08, 9.13277898e-09 ]
      - [ 2.04487845e-01, 9.76038072e-03, 2.76382826e-03, 4.01842233e-04,
          4.23443225e-07, 3.89888119e-05, -6.00733863e-09 ]
      - [ 2.35281542e-01, 1.88196972e-02, 3.48637323e-03, 9.73427319e-04,
          1.78473249e-06, 1.33435315e-04, 1.74631396e-07 ]
      - [ 2.50044614e-01, 4.55483841e-03, 1.23202370e-03, 5.44823706e-04,
          9.89090552e-08, 2.70430482e-05, 4.35272113e-07 ]
      - [ 2.57434905e-01, 3.26497518e-02, 5.63434325e-03, 1.54993986e-03,
          4.57531360e-06, 2.76504463e-04, 2.13668685e-07 ]
      - [ 1.72456905e-01, 1.96753722e-03, 3.16123660e-05, 1.20011930e-06,
          -6.37572937e-12, -4.24426503e-08, -3.74065882e-12 ]
      - [ 2.79436618e-01, 4.69966605e-02, 4.66454355e-03, 1.91195402e-03,
          5.67699999e-06, 4.05172439e-04, -6.11117969e-07 ]
      - [ 2.77647138e-01, 2.86401100e-02, 5.40253241e-03, 1.23985682e-03,
          3.16934279e-06, 2.04442855e-04, 5.02290732e-07 ]
      - [ 1.82726964e-01, 5.75332250e-03, 4.91659564e-04, 3.61394450e-05,
          1.41813006e-09, 8.68040217e-07, -4.60384308e-09 ]
      - [ 3.22701156e-01, 6.19199276e-02, 5.45136025e-03, 1.71436986e-03,
          5.14444218e-06, 4.18382726e-04, 1.00108457e-06 ]
      - [ 2.60853469e-01, 1.37881935e-02, 3.76910646e-03, 7.42268458e-04,
          2.83285488e-07, 2.67781652e-05, 1.20878894e-06 ]
   decision_functions:
      -
         sv_count: 24
         rho: 1.8662631511688232e-02
         alpha: [ 1., 1., 1., 1., 1., 1., 1., 1., 1., 1., 1., 1., -1.,
             -1., -1., -1., -1., -1., -1., -1., -1., -1., -1., -1. ]
         index: [ 0, 1, 2, 3, 4, 5, 6, 7, 8, 9, 10, 11, 12, 13, 14, 15,
             16, 17, 18, 19, 20, 21, 22, 23 ]
      -
         sv_count: 24
         rho: -5.3798019886016846e-02
         alpha: [ 1., 1., 1., 1., 1., 1., 1., 1., 1., 1., 1., 1., -1.,
             -1., -1., -1., -1., -1., -1., -1., -1., -1., -1., -1. ]
         index: [ 0, 1, 2, 3, 4, 5, 6, 7, 8, 9, 10, 11, 24, 25, 26, 27,
             28, 29, 30, 31, 32, 33, 34, 35 ]
      -
         sv_count: 24
         rho: -4.4721961021423340e-03
         alpha: [ 1., 1., 1., 1., 1., 1., 1., 1., 1., 1., 1., 1., -1.,
             -1., -1., -1., -1., -1., -1., -1., -1., -1., -1., -1. ]
         index: [ 12, 13, 14, 15, 16, 17, 18, 19, 20, 21, 22, 23, 24, 25,
             26, 27, 28, 29, 30, 31, 32, 33, 34, 35 ]
